FANN_FLO_2.1
num_layers=3
learning_rate=0.100000
connection_rate=1.000000
network_type=0
learning_momentum=0.100000
training_algorithm=0
train_error_function=1
train_stop_function=0
cascade_output_change_fraction=0.010000
quickprop_decay=-0.000100
quickprop_mu=1.750000
rprop_increase_factor=1.200000
rprop_decrease_factor=0.500000
rprop_delta_min=0.000001
rprop_delta_max=50.000000
rprop_delta_zero=0.012500
cascade_output_stagnation_epochs=12
cascade_candidate_change_fraction=0.010000
cascade_candidate_stagnation_epochs=12
cascade_max_out_epochs=150
cascade_min_out_epochs=50
cascade_max_cand_epochs=150
cascade_min_cand_epochs=50
cascade_num_candidate_groups=2
bit_fail_limit=0.350000
cascade_activation_functions_count=10
cascade_activation_functions=3 4 5 6 7 8 9 10 11 12
cascade_activation_steepnesses_count=4
cascade_activation_steepnesses=0.250000 0.500000 0.750000 1.000000
layer_sizes=125 30 2
scale_included=0
neurons (num_inputs, activation_function, activation_steepness)=
(0, 3, 0.500000) (0, 3, 0.500000) (0, 3, 0.500000) (0, 3, 0.500000) (0, 3, 0.500000) (0, 3, 0.500000) (0, 3, 0.500000) (0, 3, 0.500000) (0, 3, 0.500000) (0, 3, 0.500000) (0, 3, 0.500000) (0, 3, 0.500000) (0, 3, 0.500000) (0, 3, 0.500000) (0, 3, 0.500000) (0, 3, 0.500000) (0, 3, 0.500000) (0, 3, 0.500000) (0, 3, 0.500000) (0, 3, 0.500000) (0, 3, 0.500000) (0, 3, 0.500000) (0, 3, 0.500000) (0, 3, 0.500000) (0, 3, 0.500000) (0, 3, 0.500000) (0, 3, 0.500000) (0, 3, 0.500000) (0, 3, 0.500000) (0, 3, 0.500000) (0, 3, 0.500000) (0, 3, 0.500000) (0, 3, 0.500000) (0, 3, 0.500000) (0, 3, 0.500000) (0, 3, 0.500000) (0, 3, 0.500000) (0, 3, 0.500000) (0, 3, 0.500000) (0, 3, 0.500000) (0, 3, 0.500000) (0, 3, 0.500000) (0, 3, 0.500000) (0, 3, 0.500000) (0, 3, 0.500000) (0, 3, 0.500000) (0, 3, 0.500000) (0, 3, 0.500000) (0, 3, 0.500000) (0, 3, 0.500000) (0, 3, 0.500000) (0, 3, 0.500000) (0, 3, 0.500000) (0, 3, 0.500000) (0, 3, 0.500000) (0, 3, 0.500000) (0, 3, 0.500000) (0, 3, 0.500000) (0, 3, 0.500000) (0, 3, 0.500000) (0, 3, 0.500000) (0, 3, 0.500000) (0, 3, 0.500000) (0, 3, 0.500000) (0, 3, 0.500000) (0, 3, 0.500000) (0, 3, 0.500000) (0, 3, 0.500000) (0, 3, 0.500000) (0, 3, 0.500000) (0, 3, 0.500000) (0, 3, 0.500000) (0, 3, 0.500000) (0, 3, 0.500000) (0, 3, 0.500000) (0, 3, 0.500000) (0, 3, 0.500000) (0, 3, 0.500000) (0, 3, 0.500000) (0, 3, 0.500000) (0, 3, 0.500000) (0, 3, 0.500000) (0, 3, 0.500000) (0, 3, 0.500000) (0, 3, 0.500000) (0, 3, 0.500000) (0, 3, 0.500000) (0, 3, 0.500000) (0, 3, 0.500000) (0, 3, 0.500000) (0, 3, 0.500000) (0, 3, 0.500000) (0, 3, 0.500000) (0, 3, 0.500000) (0, 3, 0.500000) (0, 3, 0.500000) (0, 3, 0.500000) (0, 3, 0.500000) (0, 3, 0.500000) (0, 3, 0.500000) (0, 3, 0.500000) (0, 3, 0.500000) (0, 3, 0.500000) (0, 3, 0.500000) (0, 3, 0.500000) (0, 3, 0.500000) (0, 3, 0.500000) (0, 3, 0.500000) (0, 3, 0.500000) (0, 3, 0.500000) (0, 3, 0.500000) (0, 3, 0.500000) (0, 3, 0.500000) (0, 3, 0.500000) (0, 3, 0.500000) (0, 3, 0.500000) (0, 3, 0.500000) (0, 3, 0.500000) (0, 3, 0.500000) (0, 3, 0.500000) (0, 3, 0.500000) (0, 3, 0.500000) (0, 3, 0.500000) (0, 3, 0.500000) (0, 3, 0.500000) (1, 0, 0.000000) 
(126, 3, 0.500000) (126, 3, 0.500000) (126, 3, 0.500000) (126, 3, 0.500000) (126, 3, 0.500000) (126, 3, 0.500000) (126, 3, 0.500000) (126, 3, 0.500000) (126, 3, 0.500000) (126, 3, 0.500000) (126, 3, 0.500000) (126, 3, 0.500000) (126, 3, 0.500000) (126, 3, 0.500000) (126, 3, 0.500000) (126, 3, 0.500000) (126, 3, 0.500000) (126, 3, 0.500000) (126, 3, 0.500000) (126, 3, 0.500000) (126, 3, 0.500000) (126, 3, 0.500000) (126, 3, 0.500000) (126, 3, 0.500000) (126, 3, 0.500000) (126, 3, 0.500000) (126, 3, 0.500000) (126, 3, 0.500000) (126, 3, 0.500000) (126, 3, 0.500000) (1, 0, 0.000000) 
(31, 3, 0.500000) (31, 3, 0.500000) 
connections (connected_to_neuron, weight)=

(0, -0.071225) (1, -0.037602) (2, -0.014730) (3, 0.081811) (4, -0.023747) (5, -0.062180) (6, -0.057868) (7, 0.069822) (8, 0.050327) (9, 0.031618) (10, -0.013565) (11, 0.098978) (12, -0.065375) (13, -0.006885) (14, -0.027205) (15, 0.183252) (16, 0.028274) (17, 0.089626) (18, 0.152687) (19, -0.025122) (20, 0.035892) (21, -0.064776) (22, -0.263321) (23, -0.223827) (24, 0.286305) (25, 0.111171) (26, 0.323284) (27, -0.023359) (28, -0.568180) (29, 0.190733) (30, 0.051060) (31, 0.032719) (32, 0.097159) (33, -0.013968) (34, -0.005249) (35, 0.279295) (36, -0.191044) (37, 0.001587) (38, -0.207528) (39, 0.193208) (40, -0.083647) (41, -0.101120) (42, 0.243542) (43, 0.075917) (44, -0.097987) (45, 0.075679) (46, 0.088499) (47, 0.016931) (48, 0.001789) (49, 0.041353) (50, -0.027910) (51, -0.036921) (52, 0.119904) (53, -0.045562) (54, 0.220598) (55, -0.141525) (56, -0.008432) (57, 0.014920) (58, -0.086704) (59, 0.014168) (60, -0.067998) (61, 0.066342) (62, 0.190462) (63, -0.201639) (64, -0.074412) (65, 0.105948) (66, 0.026736) (67, 0.029722) (68, 0.081601) (69, -0.005424) (70, 0.103907) (71, -0.132326) (72, 0.053828) (73, -0.055713) (74, 0.017844) (75, -0.058948) (76, 0.098809) (77, -0.008077) (78, -0.048770) (79, 0.063243) (80, -0.126414) (81, -0.094425) (82, 0.113396) (83, -0.074039) (84, -0.024002) (85, 0.132982) (86, -0.012460) (87, -0.029364) (88, -0.022340) (89, 0.056711) (90, 0.044982) (91, 0.124116) (92, -0.025292) (93, -0.078325) (94, -0.076534) (95, -0.052574) (96, -0.018396) (97, -0.271554) (98, 0.157078) (99, -0.033474) (100, -0.074266) (101, 0.006114) (102, -0.039260) (103, -0.123707) (104, -0.096101) (105, 0.015157) (106, 0.035159) (107, 0.265480) (108, -0.067961) (109, -0.083494) (110, 0.122688) (111, 0.039450) (112, -0.049258) (113, 0.177753) (114, -0.018815) (115, 0.123278) (116, 0.158518) (117, -0.065401) (118, -0.006885) (119, -0.029737) (120, 0.008471) (121, -0.063430) (122, 0.145686) (123, -0.094788) (124, -0.100864) (125, 0.002862) 
(0, 0.059901) (1, -0.009973) (2, 0.047378) (3, -0.037956) (4, -0.082207) (5, 0.120880) (6, 0.008676) (7, -0.037549) (8, -0.023478) (9, -0.009082) (10, 0.036692) (11, -0.060184) (12, 0.113008) (13, 0.070433) (14, 0.129670) (15, -0.043019) (16, 0.163818) (17, -0.056881) (18, -0.140704) (19, 0.008105) (20, 0.026624) (21, -0.065744) (22, 0.231311) (23, 0.287808) (24, -0.295590) (25, -0.102516) (26, -0.309855) (27, -0.101535) (28, 0.601946) (29, -0.199725) (30, -0.119825) (31, 0.104581) (32, -0.012546) (33, -0.085662) (34, 0.001495) (35, -0.225886) (36, 0.260839) (37, 0.046814) (38, 0.241754) (39, -0.321504) (40, -0.021002) (41, 0.067276) (42, -0.193672) (43, 0.049112) (44, 0.037337) (45, -0.006640) (46, 0.055646) (47, 0.131963) (48, 0.094972) (49, 0.111958) (50, 0.022487) (51, -0.108876) (52, -0.101180) (53, 0.123113) (54, -0.416880) (55, 0.210581) (56, 0.012464) (57, 0.087856) (58, -0.084160) (59, 0.090978) (60, 0.069104) (61, 0.032831) (62, -0.310127) (63, 0.203856) (64, 0.159216) (65, -0.199541) (66, -0.079474) (67, 0.056076) (68, 0.107976) (69, -0.008868) (70, -0.100131) (71, 0.134005) (72, 0.113628) (73, 0.028402) (74, -0.025335) (75, -0.056673) (76, -0.090704) (77, 0.176048) (78, -0.037776) (79, -0.061801) (80, 0.092838) (81, 0.113951) (82, -0.001052) (83, 0.125391) (84, -0.024679) (85, -0.025640) (86, 0.022929) (87, 0.001949) (88, -0.021348) (89, -0.024035) (90, 0.027010) (91, -0.133710) (92, 0.004473) (93, 0.130481) (94, -0.052376) (95, 0.037931) (96, -0.041091) (97, 0.291585) (98, -0.153317) (99, 0.030103) (100, -0.018830) (101, 0.011193) (102, 0.019632) (103, 0.165845) (104, 0.169939) (105, -0.016928) (106, -0.196964) (107, -0.317853) (108, -0.014755) (109, 0.083706) (110, -0.020074) (111, 0.020059) (112, -0.016897) (113, -0.192650) (114, 0.035428) (115, 0.006671) (116, -0.021141) (117, 0.112751) (118, 0.000602) (119, -0.133862) (120, -0.126198) (121, 0.081305) (122, -0.134049) (123, 0.056177) (124, 0.010337) (125, -0.069141) 
(0, -0.015221) (1, -0.103786) (2, -0.038832) (3, 0.066139) (4, 0.015742) (5, 0.041776) (6, 0.135087) (7, -0.097009) (8, -0.030564) (9, -0.088007) (10, 0.103708) (11, -0.252679) (12, 0.084615) (13, 0.019920) (14, 0.118912) (15, -0.172937) (16, 0.195318) (17, 0.082907) (18, -0.062080) (19, 0.120001) (20, -0.018314) (21, 0.028098) (22, 0.539182) (23, 0.496663) (24, -0.450588) (25, -0.192061) (26, -0.519832) (27, -0.147804) (28, 0.891381) (29, -0.344124) (30, -0.205563) (31, 0.026748) (32, 0.022711) (33, -0.001032) (34, -0.031089) (35, -0.319773) (36, 0.398633) (37, -0.064732) (38, 0.409262) (39, -0.506747) (40, 0.055694) (41, 0.114203) (42, -0.377199) (43, -0.012523) (44, 0.037643) (45, -0.116251) (46, -0.058371) (47, 0.115680) (48, -0.054288) (49, 0.025216) (50, 0.125001) (51, -0.025331) (52, -0.199416) (53, 0.122647) (54, -0.590592) (55, 0.162440) (56, -0.042066) (57, 0.056940) (58, -0.066040) (59, 0.089691) (60, 0.133377) (61, -0.023165) (62, -0.350740) (63, 0.236764) (64, 0.286756) (65, -0.233153) (66, -0.111816) (67, 0.048122) (68, -0.004162) (69, 0.000874) (70, -0.100115) (71, 0.078965) (72, 0.127294) (73, -0.005161) (74, 0.011543) (75, -0.056086) (76, -0.014970) (77, 0.190880) (78, -0.120103) (79, -0.014406) (80, 0.097660) (81, -0.028418) (82, -0.032663) (83, 0.119860) (84, 0.028409) (85, -0.076099) (86, -0.096072) (87, -0.014781) (88, 0.016334) (89, 0.042290) (90, 0.105745) (91, -0.102098) (92, -0.147325) (93, 0.124144) (94, -0.037958) (95, 0.021740) (96, -0.012568) (97, 0.264091) (98, -0.085456) (99, -0.137451) (100, -0.133608) (101, -0.098378) (102, -0.047215) (103, 0.302072) (104, 0.341005) (105, -0.065116) (106, -0.229824) (107, -0.642055) (108, -0.015615) (109, 0.232137) (110, -0.022917) (111, 0.103154) (112, 0.014885) (113, -0.158441) (114, 0.157135) (115, -0.068711) (116, -0.064213) (117, 0.278049) (118, -0.082011) (119, -0.118273) (120, -0.207080) (121, 0.224010) (122, -0.061563) (123, 0.096992) (124, 0.017684) (125, -0.078695) 
(0, 0.052227) (1, -0.112397) (2, 0.070935) (3, -0.025134) (4, 0.015037) (5, 0.063044) (6, 0.048485) (7, -0.013029) (8, -0.029857) (9, -0.072419) (10, 0.041166) (11, -0.098208) (12, 0.068575) (13, 0.039218) (14, -0.015719) (15, -0.045134) (16, -0.049858) (17, -0.005166) (18, -0.019149) (19, 0.040803) (20, 0.050955) (21, -0.068356) (22, 0.292078) (23, 0.260409) (24, -0.177254) (25, 0.007298) (26, -0.211137) (27, -0.102431) (28, 0.419274) (29, -0.248047) (30, -0.048607) (31, -0.009849) (32, -0.065633) (33, -0.062794) (34, -0.042274) (35, -0.087690) (36, 0.121601) (37, 0.093393) (38, 0.233336) (39, -0.271613) (40, 0.007355) (41, 0.037808) (42, -0.077037) (43, -0.014561) (44, -0.059786) (45, -0.164845) (46, -0.061437) (47, 0.009767) (48, 0.067326) (49, 0.046063) (50, -0.053112) (51, 0.052627) (52, -0.167894) (53, 0.001656) (54, -0.153455) (55, 0.107658) (56, 0.038514) (57, 0.013702) (58, 0.083689) (59, 0.088712) (60, 0.022215) (61, -0.028838) (62, -0.202180) (63, 0.032358) (64, 0.057572) (65, -0.034772) (66, 0.015993) (67, 0.041975) (68, 0.055423) (69, 0.076176) (70, -0.134121) (71, -0.009335) (72, -0.063575) (73, -0.040169) (74, 0.071907) (75, 0.109496) (76, 0.027799) (77, 0.144186) (78, -0.081297) (79, 0.017856) (80, 0.007104) (81, 0.122001) (82, -0.119980) (83, 0.073414) (84, -0.003383) (85, -0.097937) (86, -0.062135) (87, -0.013367) (88, -0.013240) (89, -0.035892) (90, -0.028639) (91, -0.048234) (92, -0.124622) (93, 0.041285) (94, 0.009558) (95, 0.006099) (96, 0.061425) (97, 0.205313) (98, -0.079306) (99, -0.028802) (100, 0.044307) (101, -0.059352) (102, -0.026464) (103, 0.064591) (104, 0.130599) (105, 0.017228) (106, -0.187364) (107, -0.330291) (108, -0.033928) (109, 0.114352) (110, -0.114181) (111, 0.037533) (112, 0.127603) (113, -0.102014) (114, 0.012862) (115, -0.113317) (116, -0.013079) (117, 0.200407) (118, -0.055055) (119, -0.101525) (120, -0.002674) (121, -0.040256) (122, -0.105590) (123, 0.053130) (124, 0.016331) (125, 0.008867) 
(0, -0.082621) (1, -0.004740) (2, 0.004324) (3, 0.070599) (4, 0.059954) (5, 0.063217) (6, 0.031942) (7, -0.070568) (8, 0.082803) (9, -0.078991) (10, 0.034506) (11, 0.071348) (12, -0.039608) (13, -0.000010) (14, -0.013928) (15, 0.052387) (16, 0.099919) (17, 0.031301) (18, 0.004590) (19, 0.092518) (20, -0.035848) (21, -0.054872) (22, 0.138869) (23, -0.030672) (24, -0.147241) (25, 0.004368) (26, -0.031780) (27, -0.089761) (28, 0.148623) (29, 0.004832) (30, 0.015899) (31, 0.036028) (32, 0.044342) (33, -0.004899) (34, -0.068769) (35, -0.119723) (36, 0.030705) (37, 0.076656) (38, -0.029147) (39, -0.136269) (40, 0.015971) (41, 0.063792) (42, -0.060340) (43, 0.028000) (44, 0.096422) (45, -0.109453) (46, -0.032884) (47, -0.047483) (48, 0.049612) (49, 0.076913) (50, 0.008144) (51, 0.051974) (52, -0.045668) (53, 0.048345) (54, 0.001795) (55, 0.000768) (56, 0.039986) (57, 0.006634) (58, -0.044304) (59, 0.077544) (60, 0.056165) (61, 0.042111) (62, -0.095580) (63, 0.105700) (64, -0.048877) (65, 0.044358) (66, 0.011847) (67, -0.003583) (68, -0.005362) (69, -0.079329) (70, -0.011221) (71, -0.049762) (72, -0.092842) (73, -0.097336) (74, 0.084030) (75, -0.088946) (76, 0.035011) (77, 0.014917) (78, 0.025547) (79, 0.064493) (80, 0.010225) (81, -0.014309) (82, -0.068805) (83, -0.064026) (84, -0.106431) (85, -0.113364) (86, 0.053521) (87, -0.007119) (88, 0.025531) (89, 0.024828) (90, 0.081542) (91, 0.004364) (92, -0.059440) (93, -0.047680) (94, 0.012350) (95, 0.000477) (96, 0.074875) (97, -0.042754) (98, 0.073135) (99, -0.081260) (100, 0.006204) (101, 0.037629) (102, 0.098296) (103, -0.043577) (104, 0.070109) (105, 0.006672) (106, 0.013849) (107, -0.079599) (108, 0.073380) (109, 0.110362) (110, 0.080330) (111, -0.056194) (112, 0.073944) (113, -0.061505) (114, 0.086637) (115, -0.015367) (116, -0.018291) (117, 0.107383) (118, -0.069390) (119, -0.069632) (120, -0.027983) (121, 0.103065) (122, -0.001504) (123, 0.040220) (124, 0.022455) (125, -0.080057) 
(0, 0.081028) (1, -0.092887) (2, 0.025061) (3, 0.087215) (4, 0.010785) (5, -0.003833) (6, -0.000237) (7, -0.101421) (8, -0.057830) (9, 0.021138) (10, 0.025118) (11, 0.021475) (12, 0.046138) (13, -0.002581) (14, -0.018921) (15, -0.074843) (16, 0.089218) (17, 0.067153) (18, 0.004287) (19, -0.060583) (20, -0.083969) (21, -0.021186) (22, 0.075368) (23, 0.129725) (24, -0.023209) (25, 0.056432) (26, -0.112360) (27, 0.005525) (28, 0.095445) (29, -0.143383) (30, -0.071812) (31, -0.013563) (32, -0.074780) (33, -0.033192) (34, 0.067377) (35, -0.054978) (36, 0.064802) (37, -0.054211) (38, 0.168297) (39, -0.192385) (40, 0.102113) (41, 0.089188) (42, -0.030472) (43, 0.097944) (44, -0.002386) (45, -0.018105) (46, 0.000758) (47, -0.058739) (48, 0.000681) (49, 0.101536) (50, 0.048790) (51, -0.062683) (52, -0.050257) (53, 0.112827) (54, -0.192404) (55, 0.128182) (56, 0.019125) (57, -0.022105) (58, 0.095000) (59, -0.000591) (60, -0.005089) (61, 0.041305) (62, -0.162835) (63, 0.077788) (64, 0.098581) (65, -0.140464) (66, 0.060959) (67, -0.056484) (68, -0.036621) (69, 0.044336) (70, 0.067133) (71, 0.032631) (72, 0.084481) (73, -0.042211) (74, -0.075952) (75, 0.073457) (76, 0.003041) (77, 0.086283) (78, 0.012047) (79, 0.056369) (80, -0.045714) (81, -0.034346) (82, 0.023149) (83, 0.021538) (84, -0.039467) (85, 0.012052) (86, 0.058601) (87, -0.047091) (88, -0.079579) (89, 0.100508) (90, 0.027411) (91, -0.094003) (92, -0.053948) (93, -0.082184) (94, 0.032972) (95, -0.070626) (96, 0.044363) (97, 0.112720) (98, -0.062515) (99, -0.040884) (100, 0.085739) (101, 0.081471) (102, -0.085107) (103, 0.130439) (104, -0.025083) (105, -0.068493) (106, -0.048340) (107, -0.235049) (108, -0.011716) (109, 0.120696) (110, 0.017141) (111, 0.031264) (112, 0.048854) (113, -0.109366) (114, 0.001097) (115, -0.072169) (116, -0.120300) (117, 0.105803) (118, -0.046744) (119, 0.067243) (120, -0.036324) (121, -0.022312) (122, -0.068940) (123, -0.009151) (124, -0.037329) (125, -0.084138) 
(0, -0.036198) (1, 0.012789) (2, -0.028395) (3, -0.054591) (4, 0.065013) (5, 0.015281) (6, 0.071221) (7, 0.022201) (8, -0.078550) (9, -0.012699) (10, 0.216748) (11, -0.279055) (12, 0.115740) (13, 0.080320) (14, 0.150907) (15, -0.174478) (16, -0.000308) (17, 0.029289) (18, -0.044988) (19, 0.134466) (20, -0.064143) (21, -0.060021) (22, 0.385337) (23, 0.370730) (24, -0.317068) (25, -0.138132) (26, -0.440849) (27, 0.027048) (28, 0.676548) (29, -0.369997) (30, -0.030923) (31, -0.067701) (32, 0.099086) (33, -0.069189) (34, 0.053981) (35, -0.277638) (36, 0.256065) (37, -0.026141) (38, 0.433841) (39, -0.378443) (40, 0.011154) (41, 0.067448) (42, -0.282336) (43, 0.093137) (44, 0.034917) (45, -0.095610) (46, 0.100472) (47, 0.049976) (48, 0.071256) (49, 0.057204) (50, 0.073937) (51, -0.145921) (52, -0.171037) (53, 0.127049) (54, -0.453227) (55, 0.073851) (56, -0.097983) (57, 0.098411) (58, 0.082381) (59, 0.131476) (60, 0.045019) (61, 0.042756) (62, -0.248938) (63, 0.159488) (64, 0.136419) (65, -0.210784) (66, -0.042520) (67, 0.026789) (68, 0.044546) (69, -0.032506) (70, 0.030582) (71, 0.139270) (72, 0.082999) (73, -0.106160) (74, 0.079025) (75, 0.117399) (76, -0.046958) (77, 0.118809) (78, -0.138683) (79, -0.041221) (80, 0.116673) (81, 0.051358) (82, -0.093895) (83, 0.128911) (84, -0.083975) (85, -0.149650) (86, 0.071282) (87, 0.057092) (88, -0.072455) (89, 0.029035) (90, -0.005129) (91, -0.068950) (92, -0.119161) (93, -0.004253) (94, -0.007655) (95, 0.054498) (96, -0.103613) (97, 0.308986) (98, -0.173461) (99, -0.088252) (100, 0.059020) (101, 0.016374) (102, -0.054568) (103, 0.172567) (104, 0.187251) (105, -0.038684) (106, -0.129438) (107, -0.567318) (108, 0.081598) (109, 0.124114) (110, -0.103496) (111, 0.084120) (112, 0.104676) (113, -0.223045) (114, 0.125458) (115, -0.026910) (116, -0.033338) (117, 0.159895) (118, -0.170615) (119, -0.096562) (120, -0.139996) (121, 0.039701) (122, -0.140122) (123, 0.175291) (124, 0.039768) (125, 0.033346) 
(0, 0.070782) (1, 0.088962) (2, -0.057080) (3, -0.042294) (4, 0.051957) (5, -0.024489) (6, 0.001720) (7, -0.022215) (8, 0.075181) (9, 0.068741) (10, -0.050235) (11, 0.128254) (12, 0.005348) (13, 0.059921) (14, -0.069119) (15, 0.044431) (16, 0.066613) (17, -0.017522) (18, 0.065173) (19, 0.042080) (20, 0.039898) (21, -0.091453) (22, -0.143949) (23, -0.152012) (24, 0.217653) (25, 0.014494) (26, 0.087040) (27, -0.018756) (28, -0.204678) (29, 0.033568) (30, 0.100736) (31, 0.056787) (32, -0.052938) (33, -0.031019) (34, 0.079116) (35, 0.089847) (36, -0.055641) (37, -0.049827) (38, -0.138303) (39, 0.195012) (40, -0.059373) (41, -0.067169) (42, 0.039645) (43, 0.070481) (44, 0.077998) (45, -0.014470) (46, 0.028419) (47, -0.037920) (48, -0.080103) (49, 0.058826) (50, -0.086852) (51, -0.016965) (52, 0.099874) (53, -0.139060) (54, 0.122391) (55, -0.127378) (56, 0.066661) (57, -0.082103) (58, -0.063769) (59, -0.082931) (60, -0.122862) (61, 0.010212) (62, 0.150954) (63, 0.007496) (64, -0.083552) (65, 0.016054) (66, 0.001313) (67, 0.068902) (68, -0.069519) (69, -0.078805) (70, 0.057538) (71, -0.005543) (72, -0.075167) (73, -0.044540) (74, -0.017575) (75, -0.028956) (76, 0.067436) (77, -0.016687) (78, -0.048331) (79, -0.009276) (80, 0.032598) (81, 0.023776) (82, -0.035018) (83, -0.087921) (84, -0.061753) (85, 0.028023) (86, -0.037035) (87, 0.011970) (88, 0.020802) (89, 0.023942) (90, -0.012622) (91, -0.042794) (92, 0.118246) (93, 0.086289) (94, -0.029469) (95, 0.049068) (96, 0.088752) (97, -0.022594) (98, 0.073698) (99, 0.107719) (100, -0.044283) (101, 0.020738) (102, -0.009874) (103, -0.158705) (104, -0.129414) (105, -0.009922) (106, 0.027005) (107, 0.136717) (108, 0.033973) (109, -0.086202) (110, 0.018385) (111, 0.006119) (112, 0.009722) (113, -0.028971) (114, -0.054074) (115, 0.004018) (116, 0.009651) (117, -0.038700) (118, 0.064719) (119, -0.061807) (120, 0.052320) (121, 0.006700) (122, 0.033847) (123, 0.050062) (124, -0.056618) (125, -0.072583) 
(0, -0.030312) (1, 0.022805) (2, -0.099308) (3, 0.045328) (4, 0.085017) (5, -0.034584) (6, -0.121678) (7, 0.099864) (8, 0.057034) (9, -0.056051) (10, 0.048206) (11, -0.046258) (12, -0.019738) (13, 0.090209) (14, 0.043502) (15, 0.031414) (16, -0.079908) (17, 0.083426) (18, -0.056934) (19, -0.099207) (20, 0.042195) (21, -0.001924) (22, 0.013575) (23, -0.053581) (24, 0.039039) (25, -0.027613) (26, 0.118570) (27, 0.041012) (28, -0.181381) (29, -0.051782) (30, -0.058110) (31, -0.015267) (32, 0.000398) (33, 0.079842) (34, 0.078171) (35, -0.064847) (36, 0.043394) (37, -0.002053) (38, 0.008713) (39, -0.004479) (40, -0.009954) (41, -0.071875) (42, 0.111420) (43, -0.013757) (44, -0.031038) (45, 0.057881) (46, 0.051194) (47, 0.049270) (48, 0.026960) (49, -0.060692) (50, -0.082065) (51, 0.084274) (52, -0.037684) (53, 0.007674) (54, 0.046094) (55, -0.011989) (56, -0.054178) (57, -0.083760) (58, 0.012077) (59, 0.061347) (60, -0.006717) (61, 0.042607) (62, -0.021495) (63, 0.034364) (64, 0.000126) (65, -0.004375) (66, -0.023426) (67, -0.003082) (68, -0.004511) (69, -0.045857) (70, 0.060465) (71, -0.103541) (72, 0.048329) (73, 0.046585) (74, 0.063758) (75, 0.030440) (76, -0.005666) (77, -0.058059) (78, 0.054799) (79, 0.031722) (80, 0.075364) (81, 0.005939) (82, -0.074194) (83, -0.048845) (84, -0.100044) (85, 0.095446) (86, 0.070728) (87, -0.081606) (88, -0.072859) (89, -0.004352) (90, -0.104239) (91, 0.052768) (92, 0.033555) (93, 0.012779) (94, -0.095244) (95, 0.083753) (96, 0.012110) (97, -0.097750) (98, 0.072837) (99, 0.013356) (100, 0.023852) (101, -0.083895) (102, -0.078252) (103, -0.080159) (104, -0.017834) (105, 0.063126) (106, 0.121876) (107, 0.147298) (108, 0.051879) (109, 0.001001) (110, 0.027134) (111, -0.015174) (112, 0.017338) (113, 0.071084) (114, -0.001668) (115, 0.054593) (116, 0.102290) (117, -0.001264) (118, -0.016452) (119, 0.052315) (120, 0.002928) (121, -0.020939) (122, -0.080604) (123, -0.044716) (124, 0.020450) (125, 0.039424) 
(0, 0.066595) (1, 0.056069) (2, 0.021172) (3, 0.035257) (4, -0.039872) (5, 0.029326) (6, 0.008580) (7, -0.080128) (8, -0.035245) (9, -0.047187) (10, -0.043487) (11, 0.105445) (12, 0.042541) (13, 0.009089) (14, 0.005374) (15, -0.053513) (16, -0.019639) (17, 0.004324) (18, -0.001866) (19, -0.067628) (20, -0.067183) (21, -0.097575) (22, -0.028458) (23, 0.082958) (24, 0.003503) (25, -0.063315) (26, 0.075540) (27, 0.078071) (28, -0.089247) (29, -0.063785) (30, 0.020687) (31, -0.057984) (32, -0.046338) (33, 0.034822) (34, -0.001042) (35, 0.063298) (36, -0.065345) (37, 0.007158) (38, -0.048535) (39, 0.006601) (40, -0.075760) (41, 0.096047) (42, -0.017527) (43, -0.101367) (44, -0.048391) (45, 0.026251) (46, -0.076779) (47, -0.011107) (48, 0.010252) (49, 0.076253) (50, 0.038483) (51, 0.080364) (52, -0.080946) (53, -0.081184) (54, -0.013155) (55, -0.098629) (56, -0.054950) (57, 0.039139) (58, -0.076141) (59, 0.071338) (60, -0.102368) (61, 0.094157) (62, -0.019821) (63, -0.020301) (64, 0.009823) (65, 0.088750) (66, -0.120005) (67, 0.103758) (68, 0.077067) (69, -0.019091) (70, -0.000449) (71, -0.012460) (72, -0.022805) (73, 0.043838) (74, 0.078636) (75, -0.071146) (76, -0.073555) (77, 0.016085) (78, -0.010817) (79, -0.046274) (80, 0.077961) (81, 0.084592) (82, 0.018695) (83, 0.040055) (84, 0.037158) (85, -0.089188) (86, 0.035378) (87, 0.004247) (88, -0.082341) (89, -0.065160) (90, 0.034157) (91, -0.057081) (92, 0.021757) (93, 0.038423) (94, 0.033977) (95, -0.053056) (96, -0.001866) (97, 0.074349) (98, -0.024028) (99, -0.094785) (100, -0.078267) (101, -0.074520) (102, -0.000499) (103, -0.065721) (104, 0.033801) (105, 0.015653) (106, -0.067083) (107, -0.033138) (108, 0.006156) (109, -0.040393) (110, 0.029129) (111, -0.078267) (112, -0.012544) (113, 0.084095) (114, -0.094131) (115, -0.006849) (116, 0.019420) (117, -0.024617) (118, 0.085006) (119, -0.067933) (120, -0.080605) (121, 0.074792) (122, 0.068797) (123, -0.048657) (124, -0.003812) (125, 0.022569) 
(0, 0.070455) (1, -0.071627) (2, 0.022354) (3, 0.064237) (4, 0.025949) (5, -0.089622) (6, 0.073043) (7, -0.056754) (8, 0.089906) (9, 0.001060) (10, -0.083461) (11, 0.087039) (12, 0.044436) (13, -0.054063) (14, -0.034723) (15, -0.018660) (16, 0.038108) (17, 0.077265) (18, -0.064045) (19, -0.069539) (20, 0.027913) (21, -0.044239) (22, 0.036869) (23, 0.027044) (24, 0.056610) (25, -0.028404) (26, 0.046260) (27, -0.035699) (28, -0.104303) (29, 0.075809) (30, 0.086304) (31, 0.096330) (32, 0.029359) (33, -0.057824) (34, 0.000571) (35, -0.028908) (36, -0.037267) (37, 0.092285) (38, -0.091616) (39, 0.088411) (40, -0.084183) (41, 0.021637) (42, -0.030641) (43, 0.092636) (44, -0.049051) (45, 0.005904) (46, -0.055857) (47, -0.068134) (48, -0.077931) (49, -0.069441) (50, 0.054042) (51, 0.033380) (52, 0.091525) (53, 0.056248) (54, -0.029993) (55, 0.045399) (56, 0.072520) (57, 0.061594) (58, -0.030256) (59, -0.043563) (60, -0.004213) (61, -0.022125) (62, 0.022742) (63, -0.092655) (64, 0.070567) (65, 0.084366) (66, -0.063656) (67, -0.022440) (68, 0.090169) (69, 0.040472) (70, 0.079554) (71, 0.009040) (72, -0.075396) (73, 0.023845) (74, -0.013809) (75, -0.088283) (76, -0.005891) (77, 0.030875) (78, -0.071564) (79, -0.027268) (80, -0.004302) (81, -0.079132) (82, -0.020037) (83, -0.084540) (84, 0.074193) (85, 0.070246) (86, -0.091231) (87, 0.005008) (88, 0.021965) (89, -0.004509) (90, -0.007568) (91, 0.083562) (92, -0.054579) (93, -0.113397) (94, 0.037454) (95, 0.092200) (96, -0.022296) (97, -0.013866) (98, -0.055304) (99, 0.017843) (100, -0.048403) (101, -0.010347) (102, -0.061822) (103, 0.023307) (104, 0.067845) (105, -0.015110) (106, -0.000638) (107, 0.087890) (108, -0.003593) (109, -0.021023) (110, -0.026429) (111, 0.079831) (112, -0.026345) (113, -0.075581) (114, 0.026381) (115, 0.085103) (116, 0.035319) (117, 0.024899) (118, -0.078396) (119, -0.011251) (120, 0.043001) (121, -0.022718) (122, -0.053699) (123, -0.052851) (124, -0.034284) (125, -0.060280) 
(0, 0.086894) (1, 0.114413) (2, -0.012949) (3, 0.092885) (4, -0.012930) (5, -0.017879) (6, 0.010953) (7, 0.103243) (8, -0.045719) (9, 0.083243) (10, -0.054921) (11, 0.189276) (12, -0.125676) (13, 0.008603) (14, 0.052291) (15, 0.130044) (16, -0.025816) (17, 0.028830) (18, 0.028963) (19, -0.048096) (20, 0.031291) (21, -0.025396) (22, -0.309467) (23, -0.279378) (24, 0.248997) (25, 0.127971) (26, 0.180961) (27, -0.056408) (28, -0.421034) (29, 0.235285) (30, -0.039415) (31, 0.059565) (32, 0.087696) (33, -0.024533) (34, 0.072559) (35, 0.130107) (36, -0.131081) (37, -0.059723) (38, -0.220173) (39, 0.232452) (40, 0.057836) (41, 0.017008) (42, 0.051726) (43, 0.093233) (44, 0.022690) (45, 0.039722) (46, 0.061422) (47, -0.014355) (48, 0.043712) (49, -0.122137) (50, 0.005322) (51, 0.048537) (52, 0.107725) (53, -0.058867) (54, 0.265563) (55, -0.049362) (56, 0.058046) (57, -0.038681) (58, -0.030019) (59, -0.152339) (60, -0.089892) (61, 0.120187) (62, 0.232141) (63, -0.126490) (64, -0.207171) (65, 0.165700) (66, 0.049034) (67, -0.066815) (68, 0.004995) (69, -0.025698) (70, 0.099492) (71, 0.055611) (72, -0.111903) (73, 0.042084) (74, -0.104481) (75, -0.043518) (76, 0.134110) (77, -0.030670) (78, -0.047266) (79, 0.000340) (80, 0.054764) (81, 0.010808) (82, -0.037888) (83, 0.015268) (84, -0.048802) (85, 0.100734) (86, -0.061417) (87, 0.011317) (88, 0.056976) (89, -0.037422) (90, 0.024384) (91, 0.004436) (92, -0.017250) (93, -0.041813) (94, 0.022369) (95, 0.010789) (96, 0.081815) (97, -0.067830) (98, 0.094055) (99, -0.004674) (100, -0.017293) (101, 0.021704) (102, 0.092293) (103, -0.087085) (104, -0.121848) (105, -0.089702) (106, 0.160330) (107, 0.364447) (108, -0.068257) (109, -0.121720) (110, -0.044617) (111, -0.026485) (112, 0.034798) (113, 0.134592) (114, -0.031980) (115, -0.002054) (116, 0.103267) (117, -0.210152) (118, 0.102236) (119, -0.016964) (120, 0.089349) (121, 0.011178) (122, 0.067515) (123, -0.135422) (124, -0.075884) (125, 0.078825) 
(0, -0.103479) (1, -0.132607) (2, 0.024090) (3, -0.059204) (4, 0.080551) (5, 0.005680) (6, 0.154773) (7, -0.029340) (8, 0.018373) (9, -0.053340) (10, 0.108469) (11, -0.150542) (12, 0.087254) (13, -0.054252) (14, 0.129242) (15, -0.234848) (16, 0.137598) (17, 0.020140) (18, -0.035002) (19, 0.095705) (20, -0.020699) (21, 0.078211) (22, 0.424580) (23, 0.430468) (24, -0.375124) (25, -0.153003) (26, -0.456933) (27, -0.063523) (28, 0.825498) (29, -0.350732) (30, -0.144875) (31, 0.049021) (32, -0.070031) (33, -0.008402) (34, 0.016386) (35, -0.271683) (36, 0.203344) (37, 0.060353) (38, 0.440192) (39, -0.438198) (40, 0.005282) (41, 0.021804) (42, -0.323483) (43, -0.076460) (44, 0.089226) (45, -0.216575) (46, 0.059708) (47, 0.106605) (48, -0.056749) (49, -0.014347) (50, -0.014516) (51, -0.143025) (52, -0.249700) (53, 0.264484) (54, -0.550214) (55, 0.138107) (56, -0.070864) (57, 0.085013) (58, -0.018509) (59, 0.187409) (60, 0.073583) (61, 0.006231) (62, -0.243521) (63, 0.278982) (64, 0.201884) (65, -0.278085) (66, -0.183977) (67, -0.038604) (68, 0.005040) (69, -0.010176) (70, 0.000450) (71, 0.042645) (72, 0.137352) (73, -0.037823) (74, 0.040881) (75, 0.060877) (76, -0.162397) (77, 0.097645) (78, -0.036956) (79, -0.008491) (80, 0.082106) (81, -0.001821) (82, -0.082129) (83, 0.121964) (84, -0.015881) (85, -0.179807) (86, -0.034761) (87, 0.036482) (88, 0.067332) (89, -0.020558) (90, 0.098173) (91, -0.057246) (92, -0.146458) (93, -0.013183) (94, -0.011521) (95, 0.051892) (96, -0.119799) (97, 0.186970) (98, -0.185825) (99, -0.063681) (100, -0.072659) (101, -0.090132) (102, -0.041843) (103, 0.269790) (104, 0.309898) (105, -0.017834) (106, -0.104532) (107, -0.524583) (108, 0.079329) (109, 0.207583) (110, -0.101626) (111, 0.093437) (112, 0.107168) (113, -0.180448) (114, 0.170140) (115, -0.061166) (116, -0.106487) (117, 0.277970) (118, -0.190088) (119, -0.125118) (120, -0.132445) (121, 0.056876) (122, -0.110981) (123, 0.183604) (124, 0.160466) (125, -0.035549) 
(0, 0.058946) (1, 0.083022) (2, -0.052318) (3, -0.014975) (4, 0.041661) (5, -0.070382) (6, -0.205785) (7, 0.089820) (8, 0.065132) (9, -0.011346) (10, -0.054479) (11, 0.251703) (12, -0.144998) (13, -0.045943) (14, -0.108167) (15, 0.129492) (16, -0.144547) (17, 0.000805) (18, 0.170145) (19, -0.024646) (20, -0.050062) (21, -0.040173) (22, -0.442105) (23, -0.301752) (24, 0.364810) (25, 0.167891) (26, 0.528834) (27, 0.070692) (28, -0.625133) (29, 0.417117) (30, 0.129996) (31, -0.070793) (32, -0.044839) (33, 0.028759) (34, -0.040860) (35, 0.202128) (36, -0.282451) (37, 0.027685) (38, -0.382242) (39, 0.447887) (40, -0.147820) (41, -0.089942) (42, 0.162126) (43, -0.056979) (44, 0.036401) (45, 0.044065) (46, -0.051680) (47, -0.018447) (48, -0.085397) (49, 0.041969) (50, -0.099169) (51, -0.000240) (52, 0.214220) (53, -0.148189) (54, 0.425236) (55, -0.216231) (56, 0.042310) (57, 0.003532) (58, -0.023656) (59, -0.185633) (60, -0.223708) (61, -0.024210) (62, 0.349906) (63, -0.220784) (64, -0.264256) (65, 0.135895) (66, 0.067796) (67, -0.065462) (68, -0.099864) (69, 0.119499) (70, 0.022530) (71, -0.068155) (72, -0.042979) (73, 0.092944) (74, -0.013418) (75, -0.019943) (76, 0.170426) (77, -0.075011) (78, 0.030153) (79, 0.112552) (80, -0.089080) (81, -0.118468) (82, 0.088810) (83, 0.012767) (84, -0.010762) (85, 0.168015) (86, 0.035041) (87, 0.078994) (88, -0.061540) (89, -0.065949) (90, 0.033697) (91, 0.157136) (92, 0.155008) (93, -0.080629) (94, -0.010343) (95, 0.077643) (96, 0.021803) (97, -0.246144) (98, 0.142744) (99, 0.166190) (100, 0.086620) (101, 0.081185) (102, -0.023659) (103, -0.155538) (104, -0.189957) (105, -0.044491) (106, 0.249202) (107, 0.488135) (108, -0.091466) (109, -0.152422) (110, -0.040074) (111, -0.104957) (112, -0.042729) (113, 0.309340) (114, -0.230459) (115, 0.090807) (116, 0.036211) (117, -0.301933) (118, 0.179426) (119, 0.154956) (120, 0.080325) (121, -0.171300) (122, -0.013591) (123, -0.182673) (124, -0.038096) (125, 0.045570) 
(0, 0.101348) (1, 0.062812) (2, -0.058027) (3, -0.061351) (4, -0.025170) (5, -0.069811) (6, -0.097522) (7, 0.038585) (8, 0.073668) (9, 0.023550) (10, -0.131549) (11, 0.141863) (12, -0.190701) (13, -0.077355) (14, 0.020196) (15, 0.133844) (16, -0.001378) (17, 0.042313) (18, 0.021858) (19, -0.089982) (20, -0.062463) (21, 0.060248) (22, -0.381865) (23, -0.301614) (24, 0.209835) (25, 0.022503) (26, 0.368742) (27, 0.061106) (28, -0.575447) (29, 0.177333) (30, 0.063624) (31, 0.011361) (32, -0.059702) (33, -0.007934) (34, 0.031938) (35, 0.198880) (36, -0.198229) (37, 0.035826) (38, -0.247064) (39, 0.259907) (40, 0.035665) (41, -0.011338) (42, 0.231177) (43, 0.058693) (44, 0.048653) (45, 0.136005) (46, -0.076894) (47, 0.039361) (48, 0.076112) (49, -0.038775) (50, 0.021999) (51, 0.016546) (52, 0.157122) (53, -0.104951) (54, 0.232976) (55, -0.096938) (56, 0.066883) (57, 0.006532) (58, 0.067764) (59, -0.143881) (60, -0.062402) (61, -0.034390) (62, 0.122987) (63, -0.182758) (64, -0.092484) (65, 0.184020) (66, -0.026635) (67, -0.031585) (68, 0.038311) (69, 0.054961) (70, -0.042962) (71, -0.113472) (72, -0.037087) (73, 0.051313) (74, 0.025110) (75, -0.050544) (76, 0.075291) (77, -0.139364) (78, -0.058538) (79, 0.011493) (80, -0.112270) (81, -0.024036) (82, 0.074308) (83, -0.107853) (84, 0.051887) (85, 0.171392) (86, 0.016101) (87, 0.044418) (88, -0.071542) (89, 0.006868) (90, 0.066402) (91, 0.135065) (92, 0.056744) (93, -0.012640) (94, -0.037408) (95, -0.074228) (96, -0.032150) (97, -0.191421) (98, 0.184208) (99, 0.045256) (100, 0.105220) (101, 0.028862) (102, -0.041974) (103, -0.219388) (104, -0.231802) (105, 0.065340) (106, 0.026088) (107, 0.401543) (108, -0.035171) (109, -0.084384) (110, 0.087200) (111, 0.062683) (112, -0.114623) (113, 0.257205) (114, -0.087949) (115, 0.161263) (116, 0.150595) (117, -0.190362) (118, 0.006782) (119, -0.015786) (120, 0.045133) (121, -0.128008) (122, 0.010644) (123, -0.114018) (124, 0.015577) (125, -0.030886) 
(0, 0.134393) (1, 0.112632) (2, 0.048489) (3, 0.055897) (4, 0.051500) (5, -0.004232) (6, -0.192393) (7, 0.082836) (8, 0.059322) (9, 0.072406) (10, -0.047027) (11, 0.168889) (12, -0.202354) (13, 0.086008) (14, -0.106561) (15, 0.228582) (16, -0.183460) (17, -0.078305) (18, 0.201038) (19, 0.023734) (20, 0.114751) (21, -0.068281) (22, -0.410470) (23, -0.476810) (24, 0.466095) (25, 0.163837) (26, 0.513990) (27, 0.175045) (28, -0.775563) (29, 0.447918) (30, 0.161185) (31, -0.053943) (32, -0.046049) (33, -0.048350) (34, 0.028398) (35, 0.230742) (36, -0.306739) (37, -0.075595) (38, -0.486946) (39, 0.510398) (40, -0.106721) (41, -0.176555) (42, 0.293286) (43, -0.003753) (44, 0.036382) (45, 0.060577) (46, -0.064399) (47, -0.087990) (48, -0.037615) (49, -0.118685) (50, -0.046183) (51, 0.063512) (52, 0.138427) (53, -0.210594) (54, 0.591891) (55, -0.104095) (56, 0.076705) (57, 0.009579) (58, -0.060583) (59, -0.178846) (60, -0.137534) (61, -0.014582) (62, 0.403116) (63, -0.273706) (64, -0.317192) (65, 0.174808) (66, 0.010735) (67, -0.090462) (68, -0.094045) (69, 0.109145) (70, 0.062320) (71, -0.027088) (72, -0.037333) (73, 0.137082) (74, -0.151004) (75, -0.077078) (76, 0.067073) (77, -0.100535) (78, 0.097924) (79, 0.041280) (80, -0.061515) (81, -0.120616) (82, 0.032909) (83, -0.093140) (84, 0.004169) (85, 0.239274) (86, -0.001436) (87, -0.088107) (88, -0.024778) (89, 0.056489) (90, -0.004564) (91, 0.127875) (92, 0.063894) (93, -0.023538) (94, -0.030177) (95, 0.098638) (96, 0.068434) (97, -0.366458) (98, 0.147067) (99, 0.087921) (100, 0.015348) (101, -0.043136) (102, 0.004865) (103, -0.204352) (104, -0.295653) (105, 0.062963) (106, 0.178638) (107, 0.524908) (108, -0.104399) (109, -0.256938) (110, 0.102871) (111, -0.040409) (112, -0.098867) (113, 0.367220) (114, -0.084594) (115, 0.070291) (116, 0.032433) (117, -0.232585) (118, 0.216548) (119, 0.042141) (120, 0.157657) (121, -0.051727) (122, 0.085859) (123, -0.144222) (124, -0.030776) (125, 0.075895) 
(0, 0.140065) (1, 0.034258) (2, -0.060447) (3, -0.080346) (4, -0.018624) (5, -0.107458) (6, -0.112198) (7, 0.082084) (8, 0.090503) (9, 0.031313) (10, -0.157921) (11, 0.217026) (12, -0.087575) (13, 0.063546) (14, -0.167850) (15, 0.077071) (16, -0.083990) (17, -0.009429) (18, 0.073766) (19, -0.055307) (20, 0.091969) (21, -0.003149) (22, -0.379064) (23, -0.515521) (24, 0.544940) (25, 0.024560) (26, 0.643994) (27, 0.157256) (28, -0.822796) (29, 0.335748) (30, 0.053665) (31, -0.015389) (32, 0.029723) (33, 0.034230) (34, -0.075450) (35, 0.294218) (36, -0.415471) (37, 0.078415) (38, -0.494086) (39, 0.507841) (40, -0.097646) (41, -0.173639) (42, 0.336537) (43, -0.051254) (44, -0.066804) (45, 0.225082) (46, -0.074367) (47, -0.055565) (48, -0.072027) (49, -0.093906) (50, -0.029235) (51, -0.031087) (52, 0.243445) (53, -0.190771) (54, 0.468296) (55, -0.214190) (56, 0.059778) (57, 0.058608) (58, -0.071543) (59, -0.165754) (60, -0.155239) (61, 0.108587) (62, 0.401379) (63, -0.235388) (64, -0.214715) (65, 0.136702) (66, 0.032374) (67, -0.051249) (68, -0.066894) (69, 0.102068) (70, 0.058064) (71, -0.097541) (72, 0.020654) (73, 0.104791) (74, -0.142479) (75, -0.067482) (76, 0.102008) (77, -0.138262) (78, 0.111507) (79, -0.004400) (80, -0.069073) (81, -0.120555) (82, 0.071983) (83, -0.053859) (84, 0.093641) (85, 0.263311) (86, 0.078153) (87, 0.073285) (88, 0.025128) (89, 0.005234) (90, -0.049942) (91, 0.035383) (92, -0.000179) (93, -0.022594) (94, 0.036776) (95, -0.044575) (96, 0.059946) (97, -0.288232) (98, 0.197549) (99, 0.057620) (100, 0.029309) (101, -0.046048) (102, 0.001844) (103, -0.282658) (104, -0.265828) (105, -0.033141) (106, 0.182504) (107, 0.492008) (108, 0.010199) (109, -0.197803) (110, 0.114374) (111, -0.030478) (112, -0.112959) (113, 0.194031) (114, -0.106079) (115, 0.108583) (116, 0.037909) (117, -0.310948) (118, 0.066909) (119, 0.003372) (120, 0.082777) (121, -0.208917) (122, 0.048627) (123, -0.132759) (124, -0.117480) (125, 0.045535) 
(0, -0.038939) (1, -0.028654) (2, 0.037913) (3, -0.002399) (4, 0.045715) (5, 0.095215) (6, 0.123643) (7, 0.007631) (8, -0.095016) (9, 0.003866) (10, 0.074672) (11, -0.171873) (12, 0.149981) (13, 0.034302) (14, 0.119466) (15, -0.100439) (16, 0.170854) (17, -0.076938) (18, -0.079135) (19, 0.107540) (20, -0.052539) (21, -0.030509) (22, 0.408238) (23, 0.406072) (24, -0.392863) (25, -0.098180) (26, -0.460663) (27, 0.018510) (28, 0.741846) (29, -0.302655) (30, -0.183288) (31, 0.014286) (32, 0.075635) (33, 0.040978) (34, 0.000512) (35, -0.292187) (36, 0.297324) (37, 0.057061) (38, 0.383409) (39, -0.432084) (40, 0.073918) (41, 0.060597) (42, -0.206349) (43, 0.032622) (44, -0.036302) (45, -0.162169) (46, 0.068089) (47, 0.027188) (48, 0.063498) (49, 0.014074) (50, -0.032402) (51, -0.029831) (52, -0.118234) (53, 0.150628) (54, -0.449112) (55, 0.125007) (56, 0.041369) (57, -0.011362) (58, -0.066809) (59, 0.136143) (60, 0.053486) (61, 0.067958) (62, -0.306493) (63, 0.178596) (64, 0.224558) (65, -0.168081) (66, -0.125503) (67, -0.013536) (68, -0.052684) (69, -0.031287) (70, -0.112266) (71, 0.012492) (72, -0.019669) (73, -0.104916) (74, 0.019327) (75, -0.080549) (76, 0.001087) (77, 0.051363) (78, 0.017595) (79, -0.138501) (80, 0.027761) (81, 0.080355) (82, -0.117581) (83, 0.117062) (84, 0.043268) (85, -0.132914) (86, -0.089108) (87, 0.022163) (88, -0.056031) (89, 0.066105) (90, 0.095962) (91, -0.011311) (92, 0.023522) (93, 0.074125) (94, -0.059212) (95, 0.098105) (96, -0.028587) (97, 0.346254) (98, -0.220206) (99, -0.145177) (100, -0.019459) (101, -0.019259) (102, 0.054189) (103, 0.255105) (104, 0.262668) (105, -0.031268) (106, -0.127911) (107, -0.388615) (108, 0.024732) (109, 0.267201) (110, -0.000487) (111, 0.111158) (112, -0.008900) (113, -0.293017) (114, 0.105868) (115, -0.118344) (116, -0.116148) (117, 0.159516) (118, -0.147383) (119, 0.057532) (120, -0.043900) (121, 0.157212) (122, -0.050564) (123, 0.118473) (124, 0.095910) (125, 0.007293) 
(0, 0.029831) (1, 0.018302) (2, -0.058606) (3, 0.011577) (4, 0.051211) (5, 0.072471) (6, 0.084368) (7, -0.055070) (8, 0.059412) (9, -0.017598) (10, 0.062192) (11, 0.058764) (12, 0.093582) (13, -0.035099) (14, 0.002371) (15, 0.026579) (16, 0.044420) (17, -0.066699) (18, -0.061983) (19, -0.039845) (20, -0.048407) (21, 0.086509) (22, 0.117110) (23, -0.029396) (24, -0.057574) (25, 0.014851) (26, 0.029492) (27, -0.034191) (28, 0.114188) (29, -0.027459) (30, 0.033118) (31, -0.025369) (32, -0.053852) (33, -0.029526) (34, -0.026261) (35, -0.057479) (36, -0.009340) (37, -0.030578) (38, 0.072037) (39, -0.106290) (40, 0.020918) (41, 0.051734) (42, -0.060973) (43, 0.068090) (44, -0.042739) (45, 0.061876) (46, 0.012163) (47, 0.001761) (48, 0.056600) (49, -0.079285) (50, -0.012471) (51, 0.065721) (52, -0.021589) (53, 0.096955) (54, -0.122227) (55, 0.011967) (56, -0.002197) (57, -0.065245) (58, 0.097667) (59, 0.090938) (60, 0.091857) (61, 0.028167) (62, -0.010412) (63, 0.055839) (64, 0.028555) (65, -0.113227) (66, 0.057122) (67, 0.018900) (68, -0.075608) (69, -0.032363) (70, -0.104311) (71, -0.042073) (72, -0.089877) (73, 0.001991) (74, -0.016105) (75, 0.032888) (76, -0.002357) (77, 0.013966) (78, -0.051146) (79, -0.096264) (80, -0.077544) (81, -0.017056) (82, 0.024233) (83, -0.051969) (84, -0.076593) (85, -0.098036) (86, 0.058348) (87, 0.055393) (88, 0.094759) (89, -0.058158) (90, 0.059863) (91, -0.065613) (92, -0.011481) (93, -0.084853) (94, -0.047214) (95, 0.072300) (96, -0.099643) (97, 0.010987) (98, -0.001529) (99, -0.004478) (100, -0.110821) (101, 0.002605) (102, -0.054049) (103, -0.009535) (104, 0.003628) (105, -0.070685) (106, -0.064711) (107, -0.084221) (108, -0.037690) (109, -0.057063) (110, -0.090935) (111, -0.009940) (112, -0.043348) (113, -0.119466) (114, -0.029913) (115, -0.011488) (116, -0.065023) (117, -0.072067) (118, -0.052484) (119, -0.035283) (120, 0.021617) (121, -0.082493) (122, 0.014598) (123, 0.069924) (124, -0.039847) (125, 0.037357) 
(0, -0.069708) (1, 0.011433) (2, 0.033049) (3, -0.014432) (4, -0.022095) (5, 0.121241) (6, 0.112275) (7, -0.140592) (8, 0.000331) (9, 0.043076) (10, 0.186262) (11, -0.341762) (12, 0.150871) (13, -0.001554) (14, 0.022490) (15, -0.119603) (16, 0.093144) (17, -0.067029) (18, -0.154535) (19, 0.055276) (20, -0.009852) (21, 0.025501) (22, 0.467909) (23, 0.526107) (24, -0.551950) (25, -0.035233) (26, -0.669379) (27, -0.139042) (28, 0.943483) (29, -0.495105) (30, -0.148711) (31, 0.082264) (32, 0.096911) (33, -0.082277) (34, -0.034939) (35, -0.313067) (36, 0.367876) (37, 0.036856) (38, 0.390253) (39, -0.457586) (40, 0.007514) (41, 0.115371) (42, -0.371821) (43, 0.043218) (44, 0.088800) (45, -0.198342) (46, 0.043971) (47, 0.163299) (48, 0.028518) (49, 0.125764) (50, -0.027713) (51, -0.013536) (52, -0.286630) (53, 0.137132) (54, -0.481090) (55, 0.145860) (56, -0.026602) (57, 0.076565) (58, -0.047598) (59, 0.070638) (60, 0.176024) (61, -0.023391) (62, -0.334877) (63, 0.209332) (64, 0.379709) (65, -0.138882) (66, -0.200046) (67, 0.073681) (68, -0.067937) (69, -0.099090) (70, -0.161405) (71, 0.016389) (72, 0.102146) (73, -0.138613) (74, 0.099249) (75, 0.098640) (76, -0.098021) (77, 0.149910) (78, -0.028557) (79, -0.152796) (80, 0.007301) (81, 0.139162) (82, -0.040740) (83, 0.058743) (84, -0.062135) (85, -0.109599) (86, -0.023661) (87, 0.069718) (88, -0.067313) (89, -0.004119) (90, 0.099788) (91, -0.069422) (92, -0.078584) (93, -0.015311) (94, -0.088812) (95, 0.066576) (96, -0.065598) (97, 0.241973) (98, -0.243151) (99, -0.165171) (100, -0.081262) (101, -0.095565) (102, -0.042963) (103, 0.326032) (104, 0.317795) (105, 0.104240) (106, -0.166107) (107, -0.598084) (108, 0.053385) (109, 0.224991) (110, 0.012385) (111, -0.024898) (112, -0.008544) (113, -0.304258) (114, 0.166045) (115, -0.200491) (116, -0.250823) (117, 0.201912) (118, -0.087029) (119, 0.025695) (120, -0.143940) (121, 0.114475) (122, -0.124286) (123, 0.195252) (124, 0.097735) (125, 0.053611) 
(0, -0.005708) (1, -0.091536) (2, 0.049010) (3, -0.077402) (4, 0.085078) (5, -0.086432) (6, 0.031179) (7, -0.088648) (8, -0.099996) (9, -0.040558) (10, -0.068383) (11, -0.099298) (12, 0.051177) (13, -0.068230) (14, -0.048918) (15, -0.052930) (16, 0.089422) (17, -0.074549) (18, -0.084919) (19, 0.091348) (20, 0.082930) (21, 0.100862) (22, 0.124515) (23, -0.008260) (24, -0.043363) (25, 0.004543) (26, -0.134802) (27, 0.046013) (28, 0.068492) (29, -0.142620) (30, -0.010967) (31, -0.024789) (32, -0.099996) (33, -0.110110) (34, 0.036026) (35, -0.082799) (36, -0.000163) (37, 0.053525) (38, 0.132432) (39, -0.032666) (40, 0.045645) (41, -0.068528) (42, -0.100453) (43, 0.033717) (44, 0.009510) (45, -0.030482) (46, -0.059369) (47, -0.079102) (48, 0.085348) (49, 0.050261) (50, -0.039492) (51, 0.047520) (52, -0.044970) (53, 0.068448) (54, -0.122579) (55, 0.002467) (56, -0.002707) (57, -0.041078) (58, 0.068860) (59, 0.097545) (60, 0.065960) (61, -0.046048) (62, 0.002479) (63, 0.051239) (64, 0.105251) (65, -0.076905) (66, 0.006264) (67, 0.079303) (68, -0.001103) (69, 0.053713) (70, -0.020450) (71, 0.080545) (72, 0.094170) (73, -0.048228) (74, -0.080731) (75, -0.001879) (76, 0.020106) (77, -0.063202) (78, -0.034769) (79, -0.080852) (80, -0.067436) (81, 0.002959) (82, -0.077657) (83, -0.091695) (84, -0.036544) (85, -0.038565) (86, 0.005792) (87, 0.053374) (88, 0.027836) (89, 0.093843) (90, -0.046914) (91, 0.076730) (92, -0.019428) (93, -0.067303) (94, -0.025739) (95, 0.067817) (96, -0.073145) (97, 0.108435) (98, -0.080598) (99, -0.046238) (100, -0.020220) (101, 0.069729) (102, 0.078110) (103, 0.096023) (104, 0.093990) (105, 0.019512) (106, -0.051833) (107, -0.101028) (108, 0.054960) (109, 0.096996) (110, 0.023025) (111, 0.044001) (112, 0.043484) (113, 0.051046) (114, -0.019184) (115, 0.071746) (116, 0.078611) (117, 0.003889) (118, -0.099808) (119, 0.012370) (120, 0.077144) (121, 0.044986) (122, -0.033411) (123, -0.058053) (124, -0.079776) (125, -0.089545) 
(0, 0.038000) (1, -0.055891) (2, -0.086622) (3, -0.043736) (4, 0.005700) (5, 0.048797) (6, -0.119280) (7, 0.098754) (8, -0.045011) (9, -0.088699) (10, 0.037467) (11, -0.055102) (12, -0.033497) (13, -0.039566) (14, -0.097781) (15, -0.065684) (16, -0.107265) (17, -0.005319) (18, 0.090874) (19, -0.098837) (20, -0.094342) (21, -0.036396) (22, -0.127371) (23, 0.007607) (24, 0.070317) (25, 0.108318) (26, 0.198782) (27, -0.004849) (28, -0.200980) (29, 0.168534) (30, 0.108927) (31, 0.091459) (32, -0.081381) (33, 0.017155) (34, -0.032819) (35, 0.077886) (36, -0.036520) (37, -0.017491) (38, -0.019098) (39, 0.148132) (40, 0.044160) (41, 0.035265) (42, -0.032276) (43, -0.067511) (44, -0.023848) (45, 0.121028) (46, -0.091919) (47, 0.030128) (48, 0.091123) (49, 0.035895) (50, 0.036822) (51, -0.011587) (52, 0.032911) (53, -0.108372) (54, -0.001080) (55, -0.001229) (56, 0.079087) (57, 0.045914) (58, -0.018467) (59, 0.028627) (60, -0.103074) (61, 0.034878) (62, 0.061785) (63, -0.098274) (64, 0.039567) (65, -0.039290) (66, 0.025092) (67, 0.067372) (68, 0.087758) (69, 0.027614) (70, 0.066738) (71, -0.018001) (72, 0.023720) (73, -0.003652) (74, -0.033582) (75, 0.006442) (76, -0.070942) (77, -0.095641) (78, 0.008247) (79, 0.102195) (80, 0.053463) (81, 0.029514) (82, -0.030827) (83, 0.044736) (84, -0.052965) (85, 0.065107) (86, -0.084646) (87, -0.047469) (88, 0.045246) (89, -0.081720) (90, -0.024369) (91, -0.026432) (92, 0.077188) (93, 0.028654) (94, -0.073951) (95, 0.066926) (96, -0.007763) (97, -0.101066) (98, 0.068908) (99, 0.076854) (100, 0.086124) (101, 0.009587) (102, 0.026322) (103, -0.050442) (104, -0.068624) (105, -0.083417) (106, -0.034361) (107, 0.051621) (108, 0.052365) (109, -0.041923) (110, 0.071433) (111, 0.045257) (112, 0.074544) (113, 0.068216) (114, 0.041587) (115, -0.027588) (116, 0.111546) (117, -0.077739) (118, 0.104539) (119, -0.053202) (120, 0.010804) (121, 0.040988) (122, -0.026763) (123, -0.083047) (124, -0.030636) (125, -0.068304) 
(0, -0.141914) (1, 0.042191) (2, 0.055355) (3, -0.059798) (4, 0.065798) (5, -0.009803) (6, 0.162963) (7, -0.126950) (8, -0.095840) (9, -0.031376) (10, 0.112299) (11, -0.132657) (12, 0.134505) (13, -0.023681) (14, 0.004592) (15, -0.218730) (16, 0.080630) (17, 0.009517) (18, -0.062216) (19, 0.025629) (20, -0.087615) (21, 0.050547) (22, 0.410664) (23, 0.458320) (24, -0.511694) (25, -0.102040) (26, -0.492512) (27, 0.011693) (28, 0.771653) (29, -0.338991) (30, -0.134987) (31, -0.033075) (32, 0.005945) (33, -0.116001) (34, 0.039371) (35, -0.370378) (36, 0.332832) (37, 0.063956) (38, 0.410481) (39, -0.518189) (40, 0.061184) (41, 0.121394) (42, -0.210207) (43, 0.028691) (44, 0.024889) (45, -0.204432) (46, -0.032830) (47, 0.062761) (48, -0.018118) (49, 0.011048) (50, 0.093680) (51, -0.141180) (52, -0.194434) (53, 0.173478) (54, -0.537592) (55, 0.232624) (56, 0.097259) (57, 0.060734) (58, -0.068238) (59, 0.217136) (60, 0.059897) (61, -0.111318) (62, -0.265909) (63, 0.287615) (64, 0.266679) (65, -0.245568) (66, -0.079195) (67, 0.112518) (68, 0.022238) (69, -0.021857) (70, -0.024948) (71, 0.002842) (72, 0.002167) (73, -0.135411) (74, -0.007506) (75, 0.024123) (76, -0.170762) (77, 0.222901) (78, -0.017219) (79, -0.097176) (80, 0.099556) (81, 0.018421) (82, -0.088653) (83, -0.044267) (84, -0.049373) (85, -0.143031) (86, 0.020420) (87, -0.069707) (88, -0.047645) (89, -0.038091) (90, 0.032207) (91, -0.067605) (92, -0.027663) (93, 0.026537) (94, 0.050869) (95, 0.038513) (96, -0.064378) (97, 0.238415) (98, -0.053756) (99, -0.143047) (100, -0.041034) (101, 0.050717) (102, 0.051625) (103, 0.314464) (104, 0.214654) (105, 0.112543) (106, -0.122250) (107, -0.469616) (108, 0.112372) (109, 0.273144) (110, 0.002577) (111, -0.016816) (112, 0.139942) (113, -0.326673) (114, 0.095582) (115, -0.036820) (116, -0.014950) (117, 0.229683) (118, -0.066534) (119, -0.010080) (120, -0.051873) (121, 0.065050) (122, -0.021092) (123, 0.183778) (124, 0.049788) (125, -0.049718) 
(0, -0.006965) (1, -0.060767) (2, -0.008567) (3, -0.093051) (4, 0.089189) (5, -0.059354) (6, -0.087442) (7, -0.058267) (8, -0.035996) (9, -0.090417) (10, -0.030888) (11, -0.011587) (12, -0.086273) (13, 0.022019) (14, -0.058579) (15, 0.061659) (16, 0.077285) (17, -0.047296) (18, 0.046137) (19, 0.085882) (20, -0.058929) (21, -0.096701) (22, -0.081935) (23, 0.060495) (24, 0.024243) (25, -0.089315) (26, -0.060250) (27, 0.060877) (28, -0.082120) (29, 0.071445) (30, -0.072213) (31, 0.056833) (32, 0.066424) (33, -0.068703) (34, -0.014009) (35, -0.074503) (36, 0.077650) (37, 0.027535) (38, 0.062848) (39, 0.064356) (40, 0.004368) (41, -0.016685) (42, -0.022494) (43, -0.033427) (44, -0.068554) (45, 0.024655) (46, -0.079677) (47, -0.052950) (48, 0.032146) (49, 0.013500) (50, -0.099985) (51, 0.079141) (52, -0.033993) (53, -0.011311) (54, -0.084338) (55, -0.044889) (56, 0.094688) (57, -0.070656) (58, 0.004445) (59, 0.008227) (60, 0.058109) (61, -0.082796) (62, -0.033569) (63, -0.099279) (64, 0.063699) (65, 0.028185) (66, 0.071907) (67, 0.060775) (68, -0.063668) (69, 0.003130) (70, -0.015572) (71, 0.069053) (72, -0.079298) (73, 0.024058) (74, -0.089280) (75, -0.053396) (76, 0.088104) (77, -0.032828) (78, 0.035661) (79, 0.021862) (80, -0.026679) (81, 0.053908) (82, -0.071327) (83, 0.023583) (84, -0.103558) (85, 0.091554) (86, -0.035903) (87, -0.026250) (88, -0.060273) (89, 0.005518) (90, -0.043035) (91, 0.029676) (92, 0.056596) (93, 0.031379) (94, 0.078162) (95, 0.097738) (96, -0.000695) (97, 0.030762) (98, 0.054790) (99, 0.013747) (100, 0.027649) (101, 0.086221) (102, 0.092397) (103, 0.011973) (104, -0.078749) (105, 0.043830) (106, 0.025233) (107, -0.000673) (108, -0.067935) (109, -0.044607) (110, 0.074903) (111, -0.054523) (112, -0.070675) (113, 0.059170) (114, 0.072787) (115, -0.046913) (116, 0.059439) (117, 0.017907) (118, 0.044519) (119, -0.008329) (120, 0.006342) (121, -0.073747) (122, -0.022365) (123, -0.081618) (124, 0.089910) (125, 0.053643) 
(0, 0.011742) (1, 0.050072) (2, -0.030097) (3, 0.060147) (4, 0.073378) (5, 0.074331) (6, 0.015364) (7, -0.118779) (8, -0.092887) (9, -0.031347) (10, -0.051289) (11, -0.110367) (12, -0.016549) (13, 0.005391) (14, 0.075446) (15, -0.037674) (16, 0.113703) (17, -0.065683) (18, -0.053416) (19, 0.039548) (20, -0.085424) (21, 0.045805) (22, 0.021653) (23, 0.165593) (24, -0.113189) (25, -0.125602) (26, -0.166284) (27, 0.076835) (28, 0.160094) (29, -0.026484) (30, -0.026563) (31, 0.016275) (32, 0.045766) (33, -0.029434) (34, -0.056181) (35, -0.174662) (36, 0.074465) (37, -0.055543) (38, 0.039843) (39, -0.175696) (40, 0.068786) (41, 0.110447) (42, -0.174967) (43, 0.024953) (44, -0.083981) (45, 0.024951) (46, -0.000384) (47, 0.111292) (48, -0.016656) (49, 0.042289) (50, 0.037266) (51, 0.069139) (52, -0.131601) (53, 0.001255) (54, -0.046414) (55, 0.030919) (56, 0.042561) (57, -0.060713) (58, -0.019732) (59, 0.072973) (60, 0.052147) (61, 0.045687) (62, -0.082069) (63, 0.154272) (64, -0.013546) (65, 0.017944) (66, 0.042736) (67, 0.070688) (68, 0.066167) (69, -0.068823) (70, -0.013942) (71, -0.011658) (72, 0.027431) (73, -0.064333) (74, 0.068981) (75, 0.039864) (76, -0.081261) (77, 0.007319) (78, 0.020723) (79, 0.079345) (80, 0.000081) (81, -0.000878) (82, 0.022751) (83, 0.108169) (84, -0.077655) (85, 0.032455) (86, -0.024721) (87, -0.046386) (88, -0.015408) (89, 0.004036) (90, 0.004123) (91, 0.030991) (92, -0.024682) (93, -0.033322) (94, 0.082632) (95, -0.004501) (96, 0.032063) (97, 0.025048) (98, -0.145037) (99, -0.089009) (100, -0.030331) (101, -0.093128) (102, 0.077104) (103, 0.110126) (104, 0.148513) (105, -0.004069) (106, -0.023285) (107, -0.171499) (108, -0.004165) (109, 0.032617) (110, 0.028524) (111, -0.014713) (112, -0.024927) (113, -0.121701) (114, 0.121241) (115, 0.031602) (116, -0.075531) (117, 0.108534) (118, 0.028602) (119, -0.050033) (120, 0.038263) (121, 0.039220) (122, -0.048147) (123, 0.100365) (124, -0.023657) (125, 0.072021) 
(0, 0.000977) (1, 0.012694) (2, 0.076216) (3, -0.009033) (4, -0.025597) (5, 0.094127) (6, -0.060160) (7, 0.035734) (8, -0.071330) (9, -0.106930) (10, -0.046220) (11, 0.023144) (12, 0.001590) (13, -0.046621) (14, -0.075199) (15, -0.023964) (16, 0.042925) (17, -0.068584) (18, 0.044447) (19, -0.049888) (20, -0.017797) (21, 0.040885) (22, 0.088899) (23, 0.117896) (24, -0.136752) (25, -0.012920) (26, -0.129458) (27, 0.055331) (28, 0.132570) (29, -0.103850) (30, 0.068587) (31, -0.007392) (32, -0.088192) (33, 0.043493) (34, -0.055676) (35, -0.029308) (36, -0.019556) (37, -0.094973) (38, 0.107174) (39, -0.070582) (40, 0.083125) (41, 0.002536) (42, -0.101538) (43, 0.022702) (44, -0.045746) (45, -0.069311) (46, 0.033807) (47, 0.074761) (48, 0.061100) (49, -0.055879) (50, 0.035814) (51, -0.107479) (52, -0.028717) (53, 0.029682) (54, -0.089932) (55, -0.052423) (56, 0.013479) (57, -0.001110) (58, 0.010177) (59, 0.103629) (60, -0.019464) (61, -0.096678) (62, 0.009773) (63, -0.009337) (64, 0.064229) (65, 0.013786) (66, -0.092038) (67, 0.027356) (68, 0.078459) (69, 0.042986) (70, 0.008864) (71, 0.097416) (72, 0.093793) (73, 0.022335) (74, -0.027882) (75, -0.062374) (76, -0.052440) (77, 0.017982) (78, 0.078605) (79, -0.049909) (80, 0.086820) (81, -0.011506) (82, 0.018673) (83, -0.040992) (84, 0.060345) (85, -0.050777) (86, 0.029210) (87, 0.080516) (88, -0.080101) (89, 0.036347) (90, 0.042063) (91, -0.117418) (92, 0.069829) (93, 0.001069) (94, 0.034133) (95, -0.005109) (96, -0.109749) (97, -0.023285) (98, 0.044520) (99, -0.042376) (100, -0.045256) (101, 0.035760) (102, -0.005730) (103, 0.106477) (104, 0.120141) (105, -0.036626) (106, -0.019070) (107, -0.124305) (108, 0.045959) (109, 0.005998) (110, -0.035397) (111, 0.074923) (112, 0.010862) (113, 0.028157) (114, 0.090349) (115, -0.082600) (116, -0.074289) (117, 0.094467) (118, 0.044271) (119, 0.084608) (120, 0.032879) (121, 0.077672) (122, -0.116500) (123, 0.109921) (124, 0.097959) (125, 0.061771) 
(0, 0.109760) (1, 0.006401) (2, -0.064166) (3, 0.018582) (4, 0.004684) (5, -0.060515) (6, -0.112981) (7, 0.182525) (8, 0.073300) (9, 0.063763) (10, -0.112313) (11, 0.195150) (12, -0.181042) (13, 0.065880) (14, -0.080085) (15, 0.224616) (16, -0.160941) (17, 0.068607) (18, 0.091536) (19, -0.084723) (20, 0.022989) (21, 0.000200) (22, -0.507389) (23, -0.510003) (24, 0.599938) (25, 0.191447) (26, 0.712655) (27, 0.070434) (28, -1.017154) (29, 0.534424) (30, 0.212401) (31, -0.024126) (32, 0.063317) (33, 0.034519) (34, -0.083272) (35, 0.396671) (36, -0.408343) (37, -0.096620) (38, -0.448394) (39, 0.483193) (40, -0.045728) (41, -0.151437) (42, 0.336905) (43, 0.006902) (44, 0.012980) (45, 0.125232) (46, -0.102287) (47, -0.163226) (48, 0.009310) (49, -0.101075) (50, -0.067588) (51, 0.076106) (52, 0.287516) (53, -0.230752) (54, 0.530494) (55, -0.155261) (56, 0.008216) (57, -0.000234) (58, 0.011390) (59, -0.251134) (60, -0.240775) (61, 0.102625) (62, 0.393234) (63, -0.299054) (64, -0.253885) (65, 0.279429) (66, 0.178212) (67, 0.045371) (68, -0.026065) (69, 0.124624) (70, 0.074432) (71, -0.029205) (72, -0.163645) (73, -0.037479) (74, -0.057655) (75, -0.121761) (76, 0.200396) (77, -0.166489) (78, 0.027495) (79, 0.029408) (80, -0.073232) (81, -0.059137) (82, 0.044769) (83, -0.155018) (84, 0.035884) (85, 0.123498) (86, -0.000209) (87, 0.052940) (88, 0.050010) (89, -0.115750) (90, -0.144065) (91, 0.167950) (92, 0.055394) (93, 0.001107) (94, -0.097013) (95, 0.004898) (96, 0.099355) (97, -0.389476) (98, 0.080846) (99, 0.061847) (100, 0.023728) (101, 0.097978) (102, 0.096718) (103, -0.200200) (104, -0.326796) (105, -0.004375) (106, 0.304571) (107, 0.619210) (108, -0.059366) (109, -0.243883) (110, 0.105141) (111, 0.017532) (112, -0.131588) (113, 0.284998) (114, -0.186415) (115, 0.160558) (116, 0.118342) (117, -0.309323) (118, 0.138082) (119, 0.095416) (120, 0.111803) (121, -0.122001) (122, 0.095335) (123, -0.072422) (124, 0.008569) (125, 0.070965) 
(0, -0.007744) (1, -0.031084) (2, 0.054727) (3, -0.055771) (4, 0.011603) (5, 0.028288) (6, -0.025678) (7, -0.001768) (8, -0.026805) (9, -0.070359) (10, -0.098580) (11, 0.041264) (12, 0.047463) (13, -0.013960) (14, 0.034563) (15, 0.073466) (16, -0.025254) (17, -0.017435) (18, 0.022511) (19, -0.049527) (20, -0.027253) (21, 0.040432) (22, -0.029618) (23, 0.055142) (24, -0.072812) (25, 0.039249) (26, -0.025464) (27, -0.039141) (28, -0.003771) (29, -0.009861) (30, -0.088423) (31, -0.034250) (32, -0.048625) (33, -0.086501) (34, -0.098298) (35, -0.001884) (36, 0.013615) (37, -0.058038) (38, -0.078659) (39, 0.038409) (40, -0.091050) (41, -0.101285) (42, -0.052065) (43, 0.069843) (44, 0.019860) (45, -0.012778) (46, -0.015735) (47, -0.066464) (48, 0.067902) (49, 0.053930) (50, 0.016078) (51, -0.015897) (52, 0.038195) (53, 0.008837) (54, 0.031718) (55, -0.074365) (56, 0.067594) (57, -0.073393) (58, 0.062865) (59, 0.015854) (60, -0.043385) (61, -0.052513) (62, 0.048976) (63, -0.104259) (64, -0.077917) (65, -0.056508) (66, -0.036110) (67, -0.015189) (68, 0.011694) (69, -0.085918) (70, -0.020990) (71, 0.018144) (72, -0.077799) (73, -0.002131) (74, 0.092424) (75, 0.073298) (76, -0.084144) (77, -0.051986) (78, -0.061668) (79, -0.026953) (80, 0.014940) (81, 0.042342) (82, -0.060244) (83, -0.033565) (84, -0.001613) (85, -0.026264) (86, 0.043050) (87, 0.064460) (88, 0.036466) (89, 0.090239) (90, -0.053444) (91, 0.082743) (92, 0.003344) (93, -0.020450) (94, 0.096197) (95, 0.054213) (96, 0.004621) (97, 0.017470) (98, 0.047012) (99, -0.059690) (100, -0.087979) (101, -0.075387) (102, 0.044412) (103, 0.012535) (104, -0.060787) (105, -0.020890) (106, 0.025299) (107, 0.124801) (108, 0.057574) (109, -0.107054) (110, 0.082475) (111, -0.041055) (112, -0.065872) (113, -0.021479) (114, -0.080280) (115, 0.008528) (116, 0.043024) (117, -0.045468) (118, 0.029253) (119, -0.014940) (120, 0.011512) (121, -0.107942) (122, -0.089150) (123, -0.036281) (124, -0.050533) (125, 0.009433) 
(0, -0.018035) (1, 0.055214) (2, 0.055447) (3, 0.060786) (4, 0.037355) (5, 0.052198) (6, -0.105427) (7, 0.097256) (8, -0.000105) (9, 0.090054) (10, -0.115277) (11, 0.124964) (12, -0.042281) (13, 0.047993) (14, 0.031758) (15, 0.125316) (16, -0.114692) (17, 0.006956) (18, 0.089298) (19, 0.034185) (20, 0.123127) (21, 0.050716) (22, -0.196846) (23, -0.287513) (24, 0.216627) (25, 0.053609) (26, 0.260465) (27, 0.096412) (28, -0.469282) (29, 0.140232) (30, 0.058070) (31, 0.054247) (32, -0.054086) (33, -0.065364) (34, -0.009119) (35, 0.248792) (36, -0.198445) (37, 0.032798) (38, -0.283935) (39, 0.328755) (40, -0.124614) (41, -0.063736) (42, 0.171045) (43, 0.014746) (44, 0.064747) (45, 0.174368) (46, 0.079613) (47, -0.038628) (48, -0.068018) (49, -0.071566) (50, -0.080266) (51, -0.027327) (52, 0.064609) (53, -0.050785) (54, 0.250332) (55, -0.002644) (56, -0.076783) (57, -0.025228) (58, 0.030477) (59, -0.177162) (60, -0.181014) (61, 0.093975) (62, 0.163063) (63, -0.120752) (64, -0.206466) (65, 0.107222) (66, 0.056934) (67, -0.094746) (68, -0.036412) (69, 0.040512) (70, -0.029636) (71, -0.039544) (72, 0.001330) (73, 0.052344) (74, -0.005607) (75, 0.047411) (76, 0.126656) (77, -0.105458) (78, -0.036282) (79, -0.021463) (80, -0.091330) (81, -0.108979) (82, -0.040015) (83, 0.006011) (84, -0.033491) (85, 0.046969) (86, -0.011681) (87, 0.036383) (88, -0.027355) (89, -0.048260) (90, -0.023120) (91, 0.068841) (92, 0.128043) (93, -0.095188) (94, -0.069092) (95, -0.068142) (96, 0.113741) (97, -0.136441) (98, 0.147475) (99, 0.144427) (100, 0.018779) (101, -0.053979) (102, -0.071552) (103, -0.139459) (104, -0.132755) (105, -0.046026) (106, 0.179973) (107, 0.413870) (108, 0.045780) (109, -0.194117) (110, 0.059895) (111, -0.008036) (112, -0.100737) (113, 0.185698) (114, -0.015319) (115, 0.120288) (116, 0.015273) (117, -0.189366) (118, 0.153010) (119, 0.054967) (120, 0.113483) (121, -0.026408) (122, 0.144707) (123, -0.031408) (124, -0.074664) (125, -0.004763) 
(0, 0.051837) (1, -0.064754) (2, -0.101494) (3, -0.078465) (4, -0.042107) (5, 0.024155) (6, -0.058455) (7, 0.059114) (8, 0.040496) (9, 0.033632) (10, -0.044567) (11, 0.033577) (12, 0.004341) (13, -0.039257) (14, 0.044711) (15, 0.078404) (16, 0.029996) (17, -0.073595) (18, 0.068442) (19, 0.043205) (20, 0.065022) (21, -0.065111) (22, -0.086531) (23, -0.181084) (24, 0.058503) (25, 0.075214) (26, 0.094973) (27, 0.106859) (28, -0.260484) (29, 0.073991) (30, 0.042844) (31, 0.017507) (32, 0.061353) (33, 0.044646) (34, -0.098115) (35, 0.142865) (36, -0.047167) (37, -0.063932) (38, -0.205971) (39, 0.133376) (40, -0.105733) (41, -0.018006) (42, 0.132495) (43, -0.052884) (44, -0.107637) (45, -0.050652) (46, 0.087187) (47, 0.048820) (48, 0.014197) (49, 0.045190) (50, -0.102769) (51, -0.018612) (52, 0.103237) (53, -0.048306) (54, 0.172076) (55, 0.043522) (56, -0.009258) (57, -0.006134) (58, 0.033058) (59, 0.026849) (60, -0.021577) (61, -0.051950) (62, 0.130483) (63, -0.139804) (64, -0.036203) (65, 0.152800) (66, -0.069747) (67, 0.042798) (68, 0.069277) (69, 0.030908) (70, 0.039935) (71, -0.119093) (72, -0.081556) (73, -0.033242) (74, -0.004108) (75, 0.058398) (76, 0.106054) (77, -0.041156) (78, 0.110257) (79, 0.030757) (80, -0.057981) (81, 0.055995) (82, 0.083409) (83, -0.059461) (84, 0.048069) (85, -0.007131) (86, -0.018844) (87, 0.013624) (88, -0.047836) (89, 0.045048) (90, 0.030189) (91, -0.009452) (92, 0.046931) (93, -0.025939) (94, -0.014164) (95, 0.090263) (96, 0.024801) (97, -0.128156) (98, 0.018703) (99, -0.020071) (100, -0.040721) (101, 0.090169) (102, 0.063083) (103, -0.036901) (104, -0.097090) (105, -0.069067) (106, 0.091024) (107, 0.206086) (108, -0.072278) (109, -0.042908) (110, 0.006350) (111, 0.036461) (112, -0.000352) (113, 0.091585) (114, -0.141317) (115, 0.119952) (116, 0.114037) (117, -0.062706) (118, 0.092485) (119, 0.102305) (120, 0.079137) (121, -0.118245) (122, 0.003908) (123, -0.019165) (124, -0.098046) (125, -0.104706) (0, 0.000000) 

(126, -0.822301) (127, 0.942217) (128, 1.585569) (129, 0.700753) (130, 0.201194) (131, 0.289147) (132, 1.244965) (133, -0.422729) (134, -0.134306) (135, -0.050673) (136, -0.100638) (137, -0.686267) (138, 1.367297) (139, -1.326391) (140, -1.008442) (141, -1.608678) (142, -1.568972) (143, 1.207757) (144, 0.139627) (145, 1.644649) (146, 0.261248) (147, -0.289939) (148, 1.414323) (149, -0.110765) (150, 0.389648) (151, 0.199289) (152, -1.853836) (153, -0.066529) (154, -0.939067) (155, -0.415864) (156, -0.046210) 
(126, 0.858453) (127, -0.993733) (128, -1.557161) (129, -0.659348) (130, -0.179723) (131, -0.437932) (132, -1.216967) (133, 0.406564) (134, 0.240962) (135, 0.051465) (136, 0.128500) (137, 0.856303) (138, -1.440105) (139, 1.365831) (140, 0.909199) (141, 1.498474) (142, 1.554383) (143, -1.309992) (144, -0.173727) (145, -1.647662) (146, -0.200456) (147, 0.290247) (148, -1.396489) (149, -0.000037) (150, -0.319574) (151, -0.294743) (152, 1.801309) (153, 0.116504) (154, 0.820009) (155, 0.517318) (156, 0.156725) 